0.44742412439426227
-0.6396388850786523
-0.4767163759870283
0.2658576810422446
0.7897103635358333
0.21277317035368704
-0.8095549230549559
0.3506192649849502
-0.9944213084306381
0.9805073385852652
0.10116425929956563
0.032305426149148886
0.03376203040457204
0.1265181666192221
-0.8725585558633147
-0.578530467836472
-0.928198234776185
-0.8376187415948397
0.7590139931735229
-0.5902013455936244
-0.23106544847007005
0.06685208931454545
-0.06155145187172484
0.5656329692998454
-0.839929988475701
-0.2886603497999296
0.32241293545192007
0.7988806807459929
-0.9603493549134166
0.5716514013358633
-0.5420411927790689
-0.47121148188542383
-0.5551112694281048
0.9291971321577328
-0.6354019335492038
0.2931052643035019
0.45107780449210244
0.7511639982493381
-0.422589430778735
0.004753478634114794
-0.42262035080381977
-0.5119926908525552
-0.16662751820776545
-0.6077959399709512
-0.24030889292719793
-0.8620746729984448
-0.7274511438873608
-0.4476748338912844
-0.9321029519446928
0.10181785780214425
0.27774609084218205
-4.445343388708167E-4
0.12802070604680993
0.5885550481958497
-0.1093258902598997
0.11283047388881795
0.5548675795052735
0.6504527074498119
0.11900475929077095
0.4830185013884656
-0.38671805506874213
-0.8584946485288465
0.39309082441816856
-0.8638041748534924
0.7844845794695965
0.7394438119674767
0.9158288253883744
0.9081891713033139
0.9645005806803248
-0.9352444675112104
0.7480693605303945
-0.17664978760409955
0.6086162838857265
0.7749981626354132
-0.9441516697141179
0.648157032445261
-0.7144533724622684
-0.5772786186508243
0.16963221408224705
-0.5072262370040903
-0.15717218641743758
-0.056644231471070894
0.8404893841996199
0.88379880856683
-0.34411282790296527
0.8010974493746812
-0.6025212335668533
-0.4209957535328779
-0.7167574992421752
-0.5291917726108608
-0.6131180427279999
0.49619737097856675
-0.7421267464499299
0.8165396928680311
0.7133597742680473
-0.7290857848740153
0.714915695610188
0.8725398948830008
-0.6955226521184271
-0.8158347563775331
-0.9068178206796033
0.3689853962811806
-0.11867114612172039
-0.5084281766782559
0.22431560100643508
0.015842433421816092
-0.41568582229299744
0.7574359098336445
0.858551709686302
-0.4818493788404026
0.762383501428658
0.8694918820686226
0.677204501322723
-0.7989149631828143
-0.31516362903667505
0.9340107060977607
-0.9606352896341752
0.7960315304781802
-0.3667916233145634
-0.7168911517943812
-0.4554193736337453
0.2176761606977784
0.1291264687480982
0.7238028146079167
0.8120094737318684
-0.9122337415092081
-0.8196674570171378
0.1962512477373053
-0.8597863276669488
0.46724331612139336
-0.39260137823503993
-0.49173324595813733
0.38396360848457484
-0.8807400970683226
-0.3368193919111814
-0.7587131402127706
0.16839715072704856
-0.6217374089185163
-0.16305428690329204
-0.22099790935498734
0.3224947257095269
-0.3828626312028303
-0.8885532353798153
1.0136319567149914
-0.48136738259311646
0.8492334949183731
-1.4098382837796548
-0.1622151615992637
0.6670329432562346
-0.3572373631827503
0.17568734067031022
-0.8077100743916819
0.4424887541581816
-0.11014288573085426
-0.87659424174859
-0.39502003678833203
-0.4727373586290162
-0.5761517845132318
-0.3736155440100346
-0.12007100513107871
0.22515130695462227
-0.8766812795532
-0.34925538428665237
0.05435996606900484
0.8089726410441335
0.34977196595679383
0.011988031904875745
-0.5963015935236167
-0.851684091823967
-1.1719623246762672
-0.21957430738275158
-1.1381968770645083
0.478909872329013
-0.3701036877060473
0.07358214519135903
-0.21581497487995427
0.5528285923959109
0.5139084929745347
-0.07767497582204608
0.2746300448252195
-0.3924311821502064
-0.40761046873890205
-1.033473132716336
0.023028354950970255
-0.7824250350711872
-0.18410250308871587
-0.5248664954975684
-0.5986307819889833
-1.4173484469819952
-0.45073212818432956
-1.1003410668818272
-1.0395758055171616
-0.7771275297708043
-0.06914233761371417
0.43442323975971886
-0.060031020009247885
-0.7287033510226404
0.16990208395025455
-0.3613532122133974
0.12123570073533468
-0.7189773471890113
0.4891278131633623
9.891702196653807E-4
-0.04287576389469727
-0.8835494596152487
-0.9987658446614156
-0.7275835353288352
0.39910280261115794
-1.0091159912435612
0.1944155875010564
0.3987725376363159
-0.7201599480049918
0.23770165725624826
-0.6403485732860411
0.07062774535180093
0.6809039473826256
-0.6243447047272886
0.3700238014591723
0.3455213971785772
-0.8334362912380181
0.1756020133962
-0.46754990927841295
-0.4792486247041304
0.2446486277612642
-0.7555954276023555
0.2834060275738722
-1.0539741422102855
0.04790257257695089
-0.8336763672647116
-0.20251461394582182
0.05550930815967733
-0.35346491556740645
-0.4638106403772572
-0.09494482380215274
-1.0139380354557244
-0.62086409019893
0.8183041396725653
0.6002213943923059
0.31062690988611685
-1.0585714640154082
-0.8263295619783133
0.5376180371079773
0.5944893355983953
-0.7074971343271277
-0.15478557912784668
0.0625805116045456
-0.5037968820254525
0.683585688629186
-0.8123995617874689
0.32904636055528413
-1.422588725551504
0.5612726664246134
-0.9791378478160269
0.854845264829847
-1.2224175674717561
-0.7708183048581613
-0.9388523457574639
0.5657722451509992
0.10691160820152856
-0.38203989993422927
0.5165022304035632
0.39777268488748735
-0.7782814462041063
-1.0450850980690671
-0.20682338853611917
-0.2367562502426111
-1.664840523066515
-0.15224533824046865
-0.12689075365082797
-0.5952825159971693
-1.8182597324956855
0.6677216558054441
-1.380596761412659
0.10217747567605681
0.4006276529548807
-0.03243281094507971
-0.1678483244882607
-0.8961710180377206
-0.6015759228973553
0.3027019855274665
0.6534040469245552
-0.5795240998353712
-0.22369798667412355
-0.30082282414857087
0.12152789225705174
0.5187415523429415
-0.40421184937545057
0.1902900543846373
-0.1482469134053385
-0.8102977859523052
-1.4796485048375625
0.8927250466631222
0.26729199174793544
-0.9579231421681774
-0.20838474420532405
0.6609822388966646
-0.311066430043819
0.9839532793949728
-0.4087027489644926
-0.24784586545897788
0.04485017335784803
-0.9855533687773753
0.7281829906448084
0.7219215429295468
-0.2761866219439827
0.953759931366045
-1.0750829406700582
0.3168954413866788
-0.7011394763075403
-0.76546452408601
0.21077918738564919
-0.8245170904882304
-1.4113069376097445
-0.49808670954903
0.08146976064689875
-0.8037901008483382
-0.8737346639728216
0.5069668458308131
0.15624062854856144
0.6844223426551329
-0.08991290935289276
-0.11105113755721518
-0.590935014981012
0.35546511285016646
0.6327803106164938
-0.4213936032286121
-0.4844560476000163
0.1396616330187509
-1.1163515080658375
-0.06213488190388295
-0.4194639418815446
-0.622009481915522
0.40152725580932547
0.15521165681253365
0.23559455828290424
-0.6272166225006296
-0.3918686320361926
-0.24430541088222604
-1.2098008856374014
-0.17897435191052016
-0.6571087999744772
-1.2747683048821496
0.46322249256459463
0.15244777406166304
0.2142155129549824
0.3807156287645546
-1.0352196520868853
-0.6803993541039148
-0.8662135007720464
-0.6936317905365431
-0.8767379106294078
-0.20673109670262524
-0.06509991853967431
0.01787893278465712
-0.4006151354937348
-0.11002835158969211
0.8829475442104252
-0.12078520616596723
0.021280841684920917
-0.5461477680907251
0.06480046382993887
0.5756848250614683
0.9749193922314374
-0.3959137613950032
0.15864070515173845
0.7017228839733873
0.3935739465192065
0.2323906252590048
-0.4909759005465682
-0.17103304778524003
0.015957958508064456
-0.9348931121785543
-0.8739542552591429
-0.9676758567641346
-0.22196463984282572
0.3437789902300529
0.45159590834752317
0.30453866198341023
0.2413645338069506
0.05917196478139686
-0.5402405835580928
-0.34446813555196226
0.46942051494661335
-0.5401475456489014
0.03216766810417268
-0.3729264053300486
-0.5202406926769625
-0.1027521328384182
-0.6206380273053314
-0.5191343493222891
-0.09478817584484175
-0.08084513036692505
-1.1154899214310314
1.4067504349367772
-1.3386535977903313
-0.70791999479892
-0.4928380534829796
-0.13065386074182825
0.6686159338302989
-0.9189350827134083
-0.08348987255239093
-0.13541591998725377
0.7312658581858982
-0.9581067450113814
0.33390568988549196
0.4794069782496839
0.7187500414882622
-0.8450246212550093
-0.020855568120819318
-0.23754449770910308
-0.05333136919559138
-0.29430732249940195
-0.6421139866577211
0.24956550030224053
-0.8246930773580102
0.6033142669404876
0.45377682035043365
-0.004681731857617974
-0.18004107814434864
-0.19622357990587733
0.9238456591409085
0.8292924570182354
1.0897677709158964
0.13195067303135685
0.1210721319387324
-0.3750275381949056
-0.8804944942258033
1.2988725685953058
-0.26537827381720386
0.19859405886076728
0.4193143322163787
-0.554463736111834
-0.6794114728129624
0.35253743164091467
-0.2565527312500583
-0.6285119979598592
-0.8545212420368837
0.695601888736834
0.10891191059799832
0.04959931977693777
-0.6421976716776967
0.8252265779175942
-0.04058387056506163
0.1761313556870865
0.6770245212254249
-0.3750348803788863
-0.21489293711196958
-0.14866097085411636
0.04883610536574572
0.11561062405670226
-0.5027140501119989
0.16159012210639404
-0.4381519365099807
0.5000271447899493
0.8304957635620178
0.5905685017731979
-0.1707479627050046
0.7476625753736326
0.9548529786932528
-0.4235967364226769
0.0284785496520041
-0.6719199990382708
-0.3537824390253446
-0.4037526054908238
1.7622848484035416
0.6195932161257278
1.0695237264443893
1.0447017111116907
0.7243038329711663
-0.75450716348381
-0.26203763901118626
0.8267102705181355
1.0389835241763674
0.4914894097432135
-1.0083390784443609
0.7697643449679555
0.5342444489261969
0.5169468778457601
0.0032454942099224837
-0.7967951477225488
-0.6262512054377538
0.18843707991445657
0.8452024805221208
0.24878867420042727
0.4838008459319265
-0.31166612172691277
0.1377322391169119
0.8008500016069018
0.5635971276459606
0.09294381834771756
-0.7743494510448876
-0.707737946288784
0.069883498177148
0.8517874264396537
1.2066350948574631
0.03171883592934364
-0.21517172599529377
-0.001897460491265962
0.3392856750153973
-0.6772491119909052
-0.08318754779003362
0.768642196918826
-0.41969604865502647
-0.5306007738905302
-0.5298773431590482
0.29621389524367375
0.7186166760164521
-0.7084506707618649
-0.11113924665980827
0.38674029690791617
1.0081415925248935
-0.06182104580248665
-0.11730116276416001
1.0493286081488886
0.47274286967886414
-0.3255621065452937
0.3410367966878838
0.4118693812791387
0.3126517320199338
0.9082761730751003
-0.9620357252065284
0.8395500223133401
-0.969392271788309
0.33059988198020096
-0.6528073512448556
0.32357609080331784
-0.421990269988418
1.1823417404330965
0.6847806211336378
0.8401909640874183
0.5662172456730549
0.23589275039899582
1.0126630658220077
-0.5911583164580835
-0.7695979631122944
-0.7812278015310666
0.001194929290221101
0.1324186932354554
0.35750287391378793
-0.8389260112645927
-0.20018155156155068
0.9178605392482352
0.07694484582886235
-0.998209284242341
0.24858546474961224
0.6719961865694837
0.45167719385439586
-0.8553611458113353
0.7354609257852074
1.1357039711902295
0.7144188663139323
-0.1549730970100821
0.12463631309326917
0.2586329723996394
0.5644249742002647
-0.5028009203848626
0.6634694018478104
0.6912873412679494
-0.9219589778885475
-0.6538487408906433
0.4199188263064655
-0.19406243077340668
0.37547826227100756
-0.7137341673674822
0.46727376226243034
0.33579579491866607
-0.9097642862892846
0.7383115357306351
-0.2311864801757703
0.8863528704065251
0.18576144512703485
1.0571554505984218
1.2367165078606663
-0.5101696959890927
1.1584653403893368
-1.165043919106915
0.34809841310070994
0.18487735834133637
-0.48408703079784615
0.19068539714728747
0.4083498978035418
-0.31225461249483083
-0.0626016303156913
0.17748560862728555
0.5921215130148532
0.5468995748434282
-0.507412407590406
0.5518333244757907
-0.015602967935776814
0.7962606044555377
0.5331574196222416
0.1334627486793255
-0.6590553937797978
-0.6734469932832022
0.46809983907684855
-0.819303837068588
0.800229885180592
-0.12601405695382994
0.5311039256581218
0.3148814223150618
0.817567592515317
0.2153625476987593
-0.03161737355025429
-0.28754882791103564
-0.584581270695196
0.2340350019332833
0.340440220553191
1.2189019793921472
0.7762676498079154
0.21371590108024563
-0.38740636271615336
-0.39376988065988444
0.837260751994837
1.2778252422638035
0.26447014454032874
-0.7182794278125266
0.7268367602291351
0.18013303505207273
0.93003046336993
-0.7132202483969549
0.9587470450608743
0.4852220190059816
-0.0977101147169857
-0.22847994119938816
-0.48435086890189083
0.937144116805087
-0.7682909835500601
0.3065778577355412
1.272815199119817
-0.22174397375252775
0.3076791623029345
-0.33982708777464826
0.11608754767222597
0.8495086936067668
-0.2620914200962758
0.695062053787811
0.2368806652291784
-0.5600260493209437
0.6440489927759978
-0.7191844704009693
0.2293606387636682
0.20171924880833125
-0.07432198806345336
0.4501231534006507
-0.48322611109476243
0.5167137743477366
0.37517270892282256
0.6460099061397576
0.7617093382356879
-0.5191546639460993
-0.6345116533438768
0.10629132413063648
-0.11011283304786339
-0.7865036010682259
-0.4833648438366095
1.0467875223366623
0.6934403506322424
-0.20158640553410262
1.4058825913673334
-0.0349546292959363
1.4929137866433022
-0.4059516288047279
0.7341927127427237
-0.6382285646916345
-0.8425998741226387
-0.48277791742029796
0.30951160086633184
0.19977297738649663
0.19341270237337757
0.8807697496731641
-0.47914203916155823
0.8945867819694366
-0.4428695745404653
0.44909135833272606
-0.36724870174781227
-0.5977291328220043
-0.6441911419504047
0.11626212891683974
-0.059794690062229705
-0.36656865707964736
0.4796947673112333
0.23472431080444656
-0.98215269875473
0.7727935313543519
-0.48492288323269617
0.4161774674251666
-0.16103558286762978
0.8509542493108143
0.2527200340768476
0.45175955081352703
0.9577435399484094
-0.06066777328941043
-0.24760583927963195
0.40267664196836706
1.0133698958390989
0.3111870561520597
0.40015624664740324
-0.8871344121062064
0.8258101927625012
-0.24069452534421737
0.8800517451776438
-0.24849624085577265
1.1557097246033956
-0.23508815586719403
-0.27714116891285007
0.934235838999349
0.7532846225809485
0.21000420796138275
0.9175079268532321
-1.2659376266976916
0.46664012896298207
-0.41403493195281527
-0.8091518005662185
-0.49476025475789026
0.3761333115811249
0.7768682562281757
0.26219086862837565
0.38307634464334356
-0.14544896028037146
-0.5050236647641935
0.9118705808897494
0.8501204144316035
-0.337830721868736
-0.14777371617236112
-0.3161113111443652
0.3289122891197711
-0.5004695018946385
1.1372666647155354
-0.6604351743451411
0.16197262282390995
0.5854390896343822
0.9863642930899276
1.0437989780531103
-0.06214139268370266
1.1660761415454106
-0.49616456495947264
0.9100208281807859
-0.6604154082731711
0.04517934033951145
-0.7366079365633463
0.09604022710249324
-0.3126346277688151
1.4736547756674536
0.0808855668416548
0.7835861769189941
0.9061149549710196
1.1600171142950009
0.3873543127993364
-0.03046762285821466
-0.07082195903463838
1.101178387033612
-0.06743275821304637
-0.6578316471184352
0.9533764337292951
0.3987343160737482
-0.5680901897430803
-0.053201097172243195
-0.03595121604913509
-0.5667681164913358
-0.06351929684974733
0.06261676036561781
-0.7430449487910806
0.32078400073987634
-0.396826175156491
-0.9517042858521008
-0.3420072160460714
0.4479304037350411
-0.8071975367480544
-0.34912852486522894
-0.7156193664848227
0.6713580422242449
-0.02926829788779317
1.1033076625031564
0.004930419696398657
-0.37350930399286436
0.1505886496998759
-0.857141164382867
-0.49002946880112874
0.04734002554457353
0.7587145586559918
-0.21566322606663668
0.4001575092648288
1.4467775085040822
-0.7608746101994898
0.015353985504028334
-0.18162025509597846
-0.8523273622562344
0.014778802701951088
-0.7564190965931439
0.8838792941502993
0.5860325533827229
-0.8379205395379938
0.8263876194180211
0.01033774382403907
-0.7647108820257527
0.362049973829512
0.7764025066331266
-0.6113270631271741
-0.3388690385411557
-0.04829502326309498
2.799033995401336
-6.053751636757232